lilaac 0.15434 -0.35532 0.052329 0.13231 -0.3129 -0.18521 0.12642 0.042205 -0.17685 -0.03832 -0.026329 -0.028526 0.020944 -0.02624 0.31552 -0.18423 0.09024 -0.20737 -0.048361 0.42883 -0.15781 0.38738 -0.40878 -0.10727 -0.19587 -0.11398 -0.17772 -0.11384 -0.10037 0.15177 -0.23689 0.13272 0.020168 -0.37671 0.15648 0.084243 -0.12503 0.075801 -0.097198 -0.26816 -0.0087874 -0.19082 0.17556 0.021254 0.017301 -0.10204 -0.11794 -0.23809 -0.15937 0.011611 0.29238 -0.29311 0.047813 0.23023 0.17503 -0.29478 0.18103 0.070297 -0.024397 -0.24515 0.064362 0.16053 -0.13618 -0.0078414 -0.18903 0.12537 -0.13848 0.43886 -0.24019 0.31038 0.0053009 -0.15474 0.30994 0.020769 -0.15795 -0.0041132 0.21956 0.38106 -0.29122 -0.24713 -0.053383 0.20514 -0.23861 0.10857 0.079515 -0.073332 0.042235 0.22586 0.33289 -0.32799 -0.03035 -0.10595 -0.17823 -0.15491 0.26802 0.00094432 0.074993 0.19634 0.070958 -0.19617 -0.18023 0.22222 0.012035 -0.30286 0.3916 -0.06581 -0.10345 -0.039627 -0.064138 0.072824 0.18244 -0.016483 -0.12909 0.029917 -0.094349 -0.16214 0.24757 -0.015618 0.11234 -0.018078 0.5616 -0.21331 -0.052191 -0.021229 -0.057222 -0.24539 0.11461 0.12004 0.26533 0.41225 -0.11379 0.25744 0.15468 0.15962 0.23043 0.010592 -0.15023 -0.20388 -0.27288 0.29382 -0.15509 0.34997 0.11283 0.30427 -0.15506 0.1052 -0.063744 0.14898 0.1958 0.3616 0.38392 -0.16103 -0.50467 -0.018503 0.052136 0.020444 0.31406 -0.13945 0.17672 0.20494 0.0037131 -0.32049 0.15868 0.22959 0.16942 0.098015 0.029804 -0.24694 0.15877 0.68392 0.29231 -0.22837 -0.30989 -0.25714 -0.14689 0.17579 0.23401 -0.16101 -0.20043 -0.40495 -0.13807 -0.22749 -0.19378 -0.072404 -0.12337 0.2524 -0.092861 -0.20603 0.092869 0.053396 0.14645 0.15862 0.124 0.28843 -0.45095 0.18299 -0.063579 0.45355 -0.0548 0.015235 0.29853 0.067645 0.2701 0.090262 0.032516 -0.2234 -0.16032 -0.020683 0.2676 0.074025 0.4208 -0.10691 -0.16068 -0.23628 0.019593 -0.5207 0.084388 -0.26813 -0.30099 0.064357 -0.15352 0.16018 0.26582 0.078558 0.13524 0.02677 0.072806 -0.08303 0.20848 0.027234 0.57221 -0.10559 -0.60451 -0.23236 -0.031357 0.099296 0.0011217 -0.06051 0.21921 -0.025126 -0.14438 0.29046 -0.25852 0.065435 -0.39186 0.11554 -0.1354 0.18321 -0.07384 -0.077709 0.32161 -0.23281 -0.39161 -0.015087 0.23564 0.0027018 -0.051634 -0.34789 0.15721 -0.17373 0.075805 -0.17778 0.15066 0.060163 -0.14667 0.099961 -0.1606 -0.18347 0.19994 -0.16995 -0.15858 0.17889 0.20131 -0.11457 -0.04586 0.030029 0.04459 -0.20013 -0.17952 -0.056996 -0.087451 0.21792 -0.14645 0.086677 -0.29199 0.08702 0.28284 0.38771 0.35979 0.10919 -0.016765 0.076757 -0.016195 -0.19731 -0.0411 -0.18966 -0.32145 -0.14348 0.16013 0.10891
leptocarydion -0.48444 0.35471 0.17104 -0.041334 -0.16166 -0.3689 1.0082 -0.15454 -0.0027269 0.02476 -0.029415 0.15897 -0.014977 0.034566 0.11437 -0.52397 -0.22759 0.10837 0.043326 0.51157 0.16617 -0.46367 0.098445 0.25331 -0.57367 -0.21227 -0.30374 -0.15227 0.31061 0.086762 -0.078854 0.17463 -0.48654 0.16787 0.22738 0.45672 0.25136 0.25353 0.35128 -0.54846 -0.025864 -0.16739 -0.037161 -0.0075085 -0.0002627 0.4857 -0.23145 -0.053535 0.023265 -0.042083 -0.25966 -0.20729 -0.18629 0.19276 -0.095164 -0.10385 0.02389 -0.32457 0.1723 0.56366 0.079134 0.17584 0.15352 -0.19235 -0.021534 -0.018685 0.095426 0.17499 0.14527 0.082345 0.45469 -0.0048356 0.7346 0.10115 -0.23222 0.46288 0.58454 0.42385 -0.54447 0.027395 -0.3355 -0.31824 -0.079031 0.1893 -0.15673 -0.38498 0.29592 -0.12776 0.11119 -0.12516 -0.19646 -0.092144 -0.36914 0.6535 -0.031809 -0.2996 -0.022874 0.32231 0.27545 -0.35913 0.1753 -0.040965 -0.47492 -0.042395 0.72571 0.27504 -0.42175 0.30927 0.4871 -0.14437 -0.077679 -0.19841 0.265 -0.028407 -0.19564 -0.39289 -0.13539 0.11869 0.077837 -0.14999 0.34614 0.18335 -0.089637 0.38405 -0.07067 0.1747 -0.0047347 -0.42267 -0.17088 0.096309 0.10757 0.12383 -0.093036 0.25927 0.27242 -0.19254 -0.14453 0.072132 -0.24595 0.23766 0.22048 0.547 0.47352 0.50296 -0.10543 0.21575 -0.10101 0.18019 0.40174 -0.20257 0.39438 -0.72583 -0.31582 0.049945 -0.65319 0.38653 0.028001 -0.1881 0.30229 -0.18319 0.26768 0.45002 0.034379 -0.33608 0.57278 0.29117 -0.17438 -0.51309 0.14464 0.19197 -0.22047 -0.38343 -0.21113 -0.090194 0.20874 0.39748 -0.24947 -0.13774 -0.084387 -0.028486 -0.57806 -0.10514 -0.12223 -0.48326 0.12551 -0.37266 -0.29737 -0.13675 0.53016 0.21283 0.19579 -0.44861 0.046729 0.57165 -0.40421 -0.2867 -0.15917 0.28289 0.10925 0.074005 -0.17991 -0.10023 0.17309 0.16176 -0.0062295 -0.75113 -0.034664 0.17226 0.17276 0.15525 0.35732 0.20083 0.26297 0.11911 -0.21593 0.071696 0.038478 0.02586 -0.083254 -0.36406 0.13921 0.13248 0.022171 0.31566 -0.03955 0.3882 -0.15545 0.022773 0.43084 -0.32777 -0.12454 0.18317 -0.3994 0.12219 0.15207 -0.20958 0.22043 -0.098241 -0.18263 -0.11429 -0.038703 -0.30083 0.33228 -0.50219 0.021077 -0.035823 -0.034565 -0.45753 -0.33249 -0.44376 0.2282 -0.40282 -0.021987 0.075799 0.43 -0.058046 -0.32473 -0.43712 0.18614 0.20143 -0.41468 0.479 -0.43047 0.019961 -0.037115 -0.25637 -0.34498 0.50086 0.26231 0.15508 0.11437 -0.19351 0.54284 -0.41392 -0.14793 -0.28629 -0.27169 -0.023141 0.0040302 0.24869 0.35818 0.40884 -0.12877 0.01273 0.20425 0.03232 0.16426 0.63339 0.032708 -0.035051 -0.085815 -0.39866 0.71944 0.55149 -0.1114 0.091179 -0.33741 0.56954 0.28492 -0.015635
tamgh -0.32673 -0.18437 -0.26479 0.058591 0.019264 -0.29223 -0.18374 -0.56552 0.0011461 -0.26254 0.28905 -0.047508 -0.21473 0.11737 0.29529 -0.49387 0.069373 0.41217 -0.15459 0.66164 -0.32993 -0.049401 -0.38974 0.15985 -0.51538 -0.31399 0.41044 0.13343 -0.281 0.60652 -0.21097 -0.05274 0.32726 0.12399 0.28764 0.09218 0.19953 0.23394 0.5026 -0.014331 0.025136 0.25697 0.53167 -0.12184 -0.043343 -0.091715 0.19342 0.039327 0.34373 -0.32032 -0.27719 -0.27584 0.11415 0.064147 -0.40263 -0.46396 0.27138 0.25062 -0.24713 0.0066115 0.096691 -0.42419 -0.13802 0.0081222 0.29379 0.11527 -0.41688 -0.052995 -0.18128 0.17859 0.12254 0.21433 0.18631 -0.023464 -0.15681 -0.027936 0.30734 0.6588 -0.049608 -0.22041 -0.045167 -0.13231 0.30285 0.32103 0.2219 0.37589 -0.3901 -0.012791 0.19429 -0.22647 -0.24373 -0.74598 -0.048049 -0.41487 -0.12218 -0.30452 -0.037757 0.014418 -0.050789 -0.43582 -0.099477 -0.26544 -0.31598 0.079245 0.4113 -0.014664 -0.05908 0.034991 -0.25345 0.32541 0.15833 -0.30604 0.34883 -0.15492 0.13602 0.10556 0.58573 0.39574 -0.2388 0.10245 0.13619 -0.10865 -0.073027 -0.021789 -0.38567 -0.039434 -0.037028 -0.017417 -0.22136 -0.016955 0.013377 0.14083 -0.042877 0.096838 0.056196 0.0018615 -0.23444 -0.72296 -0.57707 0.46315 -0.42466 0.29392 0.56512 1.0018 0.18778 -0.076885 -0.099442 -0.031091 0.049349 0.013654 0.61371 0.32909 -0.53331 0.059536 -0.24036 0.22382 -0.19382 0.50854 -0.34033 -0.19124 0.23835 0.20936 -0.33843 -0.88074 0.24807 -0.26298 0.16502 -0.48339 0.53293 -0.16271 0.38671 -0.015672 -0.35341 -0.41154 0.24064 0.19594 -0.14512 0.5057 0.3414 -0.15821 0.092648 -0.56796 -0.2227 -0.41669 0.2167 0.48488 0.13081 -0.23249 0.17071 -0.31222 -0.17967 -0.10755 -0.053411 0.188 -0.38119 0.27463 0.019851 0.042625 0.069335 0.0041713 0.67279 -0.36472 0.081861 0.19923 0.25542 -0.40654 -0.20444 0.0087046 0.88648 -0.19276 0.81522 0.41362 -0.22911 0.26994 -0.089728 -0.40578 0.31782 -0.10382 -0.094286 0.20683 -0.097902 0.32282 -0.061029 0.41294 -0.26269 0.2343 0.14351 -0.19787 0.27269 -0.094722 0.07691 0.13507 -0.19546 -0.053861 0.14543 -0.099528 -0.18861 -0.10149 0.2273 0.14996 -0.016123 -0.040927 -0.87203 0.25794 -0.40187 0.37269 0.34979 0.079162 0.36217 -0.41202 0.72712 -0.1717 -0.16012 0.17688 -0.19104 0.31983 0.27382 -0.18781 0.20816 -0.43729 -0.20419 0.4424 0.29935 -0.46142 -0.59602 -0.13502 0.14325 0.19316 0.07169 -0.44187 0.068842 0.17124 0.088235 -0.038986 -0.20272 -0.52535 0.23835 0.51122 0.086137 -0.14702 -0.57982 0.096438 -0.56638 0.13183 0.051238 0.099794 0.32066 0.082291 -0.35568 0.41514 -0.39623 0.27765 0.71393 -0.52401 -0.049363 -0.05405 -0.16052 0.20151 0.29418 0.32107
nevoiyeh -0.11513 -0.63807 0.10164 -0.075254 -0.21515 -0.36114 0.16959 0.0063108 -0.22295 -0.86968 -0.48783 0.19509 0.021422 -0.46544 -0.021978 -0.18704 -0.12008 0.10806 -0.080505 0.57142 -0.12925 -0.3763 0.21182 0.19222 -0.46889 -0.71511 0.10421 0.17534 0.26156 -0.10536 -0.2933 -0.34059 0.076416 -0.28385 0.18033 -0.046537 -0.22449 0.67717 -0.11224 -0.083826 -0.065822 0.61751 -0.11495 -0.38805 0.089595 0.25438 0.15621 0.0051616 0.10806 0.29085 -0.21363 -0.46762 0.20113 -0.28332 -0.14374 -0.2556 0.62473 -0.11139 0.26304 0.15778 -0.04547 0.048997 0.57705 -0.0050556 -0.26665 -0.30338 -0.22925 0.52055 -0.0036626 -0.32122 -0.17167 -0.073073 0.37007 0.62054 -0.65548 0.4531 -0.20245 0.064025 -0.18737 0.03884 -0.074031 0.17835 0.36515 -0.088106 -0.40462 0.26605 0.34821 -0.0027578 0.15147 0.45983 0.14174 0.20362 -0.26672 0.14658 -0.3558 0.05694 0.12437 0.46141 -0.10756 0.29277 0.0089433 0.54297 0.029651 -0.21576 0.24163 0.4432 0.20121 0.3095 0.12896 -0.63861 0.044141 0.62582 0.21252 0.1267 -0.22875 -0.21868 0.044558 -0.23903 -0.17651 -0.09365 0.61135 0.0042108 0.031043 -0.24022 -0.60449 -0.52245 -0.1449 0.15757 0.25977 -0.060246 -0.039533 0.40939 -0.069134 0.27611 0.049774 -0.05334 0.11056 -0.23608 -0.011645 0.16029 -0.022119 0.093767 0.5075 0.1532 0.35345 0.13422 0.21432 0.22966 0.28694 0.30126 0.68613 -0.10636 -0.35415 -0.0071199 -0.10418 0.31562 0.37652 0.44583 0.35154 -0.033082 0.41944 0.80465 -0.34718 0.032749 0.39035 -0.37708 0.031923 -0.66755 0.408 0.52614 -0.22598 -0.17587 -0.73562 0.016464 0.11544 0.10689 -0.06785 -0.1022 0.077276 -0.67005 -0.26961 -0.37038 -0.55887 -0.15852 -0.30659 0.71819 -0.1608 -0.14008 0.54103 0.17419 -0.047261 -0.10029 0.0011494 0.41914 0.020684 0.20982 0.030818 0.25038 -0.41651 -0.40324 0.49217 0.039217 -0.07391 0.53115 0.39854 -0.44629 -0.69477 0.39541 0.62702 0.25722 1.0648 -0.26627 -0.096744 -0.25574 -0.042263 -0.20323 0.32597 -0.14087 0.10594 -0.01174 -0.36997 -0.12927 -0.42292 -0.40103 0.20417 -0.20604 0.0054785 -0.14815 0.66557 -0.084262 0.12685 -0.66676 -0.014435 -0.31603 -0.079248 0.067836 0.18485 -0.1251 -0.4816 0.40979 -0.23417 -0.042765 -0.28257 -0.36798 -0.13908 0.41005 0.18918 -0.12508 -0.24773 0.077582 0.49256 -0.15333 -0.32855 0.016477 0.48017 0.2595 0.11377 -0.093169 0.86543 -0.23997 -0.086678 0.5748 -0.026996 -0.21543 -0.41074 -0.96493 0.04715 0.065511 0.19336 -0.17613 -0.21943 -0.11889 0.061289 -0.58578 -0.41565 -0.28837 0.19592 0.87942 0.10992 -0.013696 0.0098874 -0.047137 -0.2249 -0.019506 -0.14639 -0.15256 0.011145 0.22039 -0.031856 0.13635 -0.39803 0.029077 0.18203 -0.1559 0.017874 0.6149 -0.46325 0.14163 0.67455 0.12227
médications 0.14718 -0.15236 -0.44583 0.0062304 -0.24881 0.0026318 0.17177 -0.24204 -0.017753 0.29007 -0.14145 0.22443 -0.41031 0.12372 -0.17518 -0.12203 0.25384 0.35441 0.083788 0.6193 -0.030066 0.22346 -0.06823 0.15429 0.15893 -0.09863 -0.057396 -0.38732 0.36541 0.1878 -0.081628 0.25289 0.024695 0.26071 -0.19689 -0.10503 -0.016111 0.2 -0.29319 -0.095292 -0.07827 -0.05488 0.42612 -0.36523 -0.0084676 -0.11032 0.18769 -0.39586 0.36409 0.060585 0.049901 0.020005 -0.26102 -0.078826 -0.35612 -0.49029 0.1403 -0.23071 -0.18234 0.34217 -0.26952 0.0017322 0.33453 -0.11591 0.18429 -0.085313 0.026378 0.068742 0.17698 -0.037377 0.15929 0.067135 0.39878 0.01048 -0.14315 0.26418 0.5166 0.037952 0.21259 0.010965 0.062891 -0.025539 0.063358 0.070134 0.033595 -0.27083 -0.11112 0.053911 -0.045199 -0.22399 -0.17369 -0.065861 0.28442 -0.23442 0.086134 -0.027514 0.3271 0.36366 -0.1454 -0.036945 -0.058102 -0.33625 0.096752 -0.37859 0.53024 0.0057266 -0.046391 -0.066041 0.086882 0.14228 -0.28577 0.017072 -0.10791 0.10101 -0.23767 -0.031043 0.18269 -0.11729 0.26569 0.26188 0.47519 -0.42601 -0.36212 0.34496 -0.011643 -0.16351 -0.1129 0.49482 0.019517 0.50954 -0.0058602 -0.063792 -0.23296 0.03243 0.096543 0.14168 -0.21438 0.021204 0.17338 0.43338 0.19332 -0.10118 0.12454 -0.068381 0.0065331 0.24202 0.016975 -0.082579 -0.18823 0.14284 -0.025318 -0.41416 -0.22927 -0.078244 0.16012 0.11303 -0.10593 0.22863 0.13349 0.052952 -0.23852 0.3644 0.085076 -0.15372 0.31988 -0.031564 0.077687 -0.35182 0.49729 0.30099 -0.17072 0.012157 -0.020714 0.12941 0.034834 0.25313 -0.21433 -0.28592 -0.51885 -0.16474 -0.26677 0.11832 0.16562 -0.14741 -0.21415 0.3233 0.1578 -0.11832 0.11493 -0.011659 -0.10592 -0.11748 0.094473 0.099993 -0.3885 0.14099 0.41523 -0.075647 -0.19816 -0.1377 0.040872 0.24002 -0.11272 0.10998 -0.036838 -0.46878 -0.25437 -0.033159 0.067747 0.46365 0.38871 0.3837 0.25245 -0.22614 -0.35919 -0.23879 0.011513 -0.49413 0.29021 0.42241 0.10161 0.14789 -0.14856 -0.037841 0.073398 0.044457 0.10728 -0.43514 0.39192 -0.11561 -0.053981 -0.039059 0.017628 -0.10533 0.12764 0.14888 0.25587 -0.48516 0.0056495 0.34056 -0.089719 -0.12218 0.17233 -0.25466 -0.34677 0.42117 0.19298 -0.1541 -0.16951 -0.05751 -0.11068 0.11901 -0.075104 0.031205 0.049033 -0.11305 -0.040854 -0.47807 0.08301 -0.070577 0.075869 0.074924 0.11182 0.2376 -0.24809 0.081713 -0.23828 0.13137 -0.032878 0.49223 -0.18271 0.19373 0.37829 0.02088 -0.10687 0.055667 -0.16163 0.42381 -0.030739 0.22393 -0.43952 0.12927 -0.00010766 -0.023098 -0.21552 0.26084 0.075478 -0.082644 -0.25705 0.2607 0.0017946 0.050729 -0.23583 -0.19564 -0.43634 0.026834 0.0024968 0.21698 0.33988 -0.092335
russia/religion -0.1937 -0.10242 0.16066 0.34573 -0.23236 0.10126 0.32083 -0.36092 -0.31722 0.005602 -0.30343 -0.11446 -0.51703 -0.33819 0.26159 -0.27313 -0.211 0.2047 0.57459 0.42722 -0.2256 0.60569 -0.26414 0.040399 -0.50108 -0.19653 0.26591 -0.43506 0.56391 0.49775 -0.41885 0.51511 -0.5478 0.26152 -0.15555 -0.15743 -0.37875 0.12009 0.10374 0.035863 -0.2224 -0.067129 0.46159 0.13236 0.1353 0.26657 -0.091678 -0.17486 0.20061 -0.20865 -0.21246 -0.73647 0.16782 -0.14716 -0.23017 0.059382 -0.020239 -0.15904 0.17293 0.11117 -0.2803 0.088434 0.5653 -0.13816 0.16852 0.041909 -0.042948 0.059168 -0.35504 0.04507 0.27 -0.19361 0.052956 0.33425 -0.08609 0.59089 -0.088379 -0.054198 -0.22256 0.1223 -0.14179 0.48673 0.10347 0.034221 -5.6694e-05 -0.13323 -0.16289 0.25995 -0.1266 0.25175 0.071985 -0.31248 -0.014478 -0.24504 0.19772 0.058987 -0.14123 -0.17417 0.039313 -0.19994 0.068564 0.075783 -0.18984 -0.019306 -0.1925 0.50952 -0.12702 0.050583 0.27082 0.19903 -0.22166 -0.13513 -0.16669 -0.2993 -0.022611 -0.11311 0.0085768 0.272 0.31082 -0.27668 0.042877 0.067897 -0.27416 -0.31006 0.14297 -0.34626 0.45794 0.30054 -0.088327 0.061209 0.12271 -0.3342 -0.036763 -0.10519 -0.061488 -0.13554 0.16369 -0.36871 0.58805 0.30281 -0.55015 -0.2704 0.54734 -0.1829 0.10406 -0.0012233 -0.2614 0.26525 0.063574 0.40974 0.45713 0.13481 -0.00083691 0.17368 0.15048 -0.32166 0.15185 -0.089908 -0.015481 0.29898 -0.10713 0.331 -0.068431 -0.274 0.16945 0.26613 -0.18936 -0.56798 0.085137 0.06143 -0.13217 -0.28626 -0.49477 -0.276 0.029582 0.24336 0.086711 0.18031 0.0018616 -0.20176 0.12042 -0.087263 -0.049062 0.05188 -0.11327 0.15301 0.44552 -0.40181 0.22927 -0.068274 0.14308 -0.64286 -0.028679 0.051077 -0.50706 0.024222 -0.49846 -0.53289 -0.50855 -0.0040887 0.49523 -0.27092 -0.12109 -0.080431 0.18546 -0.089171 -0.12952 -0.2596 0.20172 0.050458 0.77744 0.042748 0.06088 -0.31496 0.0046792 0.0027314 0.16711 -0.2427 -0.32392 0.041176 -0.3032 -0.38117 -0.6586 -0.15711 -0.0055146 0.28492 -0.03218 -0.55901 0.1646 0.25856 0.39658 0.13 -0.08344 -0.1451 0.069814 0.15998 0.17947 0.12166 0.46602 -0.087434 0.011419 0.14281 -0.010899 -0.056312 -0.154 -0.144 0.2719 0.4865 -0.020274 -0.17644 -0.14309 0.13089 -0.48931 0.4178 0.26035 0.1354 -0.065975 -0.21721 0.21013 0.084567 0.12727 -0.10929 -0.016474 0.024112 -0.35593 -0.019391 0.27281 -0.58918 -0.37078 0.31793 0.42926 -0.11212 0.53904 -0.18818 0.10675 -0.2446 -0.55608 -0.15285 -0.090655 0.13702 -0.20942 0.4475 0.22316 0.13912 0.020647 -0.11671 0.15786 -0.38153 -0.33966 0.24118 -0.17864 0.30248 0.030555 -0.28885 0.27737 0.52385 -0.040029 0.12254 -0.076631 -0.061615
ukihashi 0.19166 0.13352 -0.33552 0.44214 -0.29575 -0.11125 0.14203 0.034055 -0.42433 0.012069 0.039818 0.16533 -0.31843 -0.5239 -0.012999 0.27324 0.30178 -0.42788 -0.16744 -0.15201 -0.076713 0.29456 0.032607 -0.13501 -0.20572 0.14548 0.043436 -0.063001 -0.34437 0.20803 -0.23604 0.090272 -0.21954 0.33013 -0.12004 0.087149 0.16854 0.056615 -0.38391 0.43172 -0.018031 0.083212 0.20462 0.13317 0.10472 -0.16294 -0.24815 -0.37042 -0.14333 0.24008 -0.37869 -0.56407 -0.21778 0.05495 0.15374 0.34519 0.1044 0.19365 0.16891 0.19989 -0.21063 0.11841 -0.16234 -0.17229 -0.29604 0.038844 -0.42795 -0.078497 0.21571 0.33689 -0.80493 0.30498 0.19559 0.14195 -0.27751 -0.017638 0.34417 -0.033042 0.061996 0.2176 -0.36623 0.078093 -0.33929 -0.21701 0.12005 0.12086 -0.012946 0.27248 0.54458 0.014343 0.34749 -0.036281 0.10569 -0.32275 -0.14799 -0.012427 0.061404 -0.089019 0.21467 -0.42765 0.51768 0.16197 0.028043 0.33268 -0.2003 -0.17067 -0.043199 0.10511 0.41031 0.16044 -0.11017 -0.12517 0.09128 0.064616 -0.14961 -0.42971 0.57068 -0.19951 0.16065 -0.058822 0.7767 0.11916 -0.09165 0.51761 0.43308 0.19089 -0.10156 0.13249 -0.07173 0.17723 0.16571 0.11369 0.060914 0.2866 -0.040805 -0.18308 -0.052225 -0.37164 0.04384 0.13861 0.0072949 -0.33656 -0.26282 0.45692 0.16997 -0.13296 -0.17 -0.067917 0.20256 -0.077816 -0.051474 -0.29879 -0.1501 0.18079 0.14299 0.21089 -0.17094 -0.43904 -0.44243 0.20578 0.18525 0.024633 0.02835 -0.16157 0.087453 -0.1935 -0.04051 0.18123 0.17535 0.34441 0.11419 0.079048 -0.012236 0.0026523 0.4279 -0.054131 -0.12004 -0.51927 0.25066 0.23884 0.093426 -0.10095 -0.16167 -0.030248 0.15208 0.64122 -0.058016 -0.18086 0.33329 0.058225 -0.55272 -0.4503 0.14355 -0.10934 -0.46198 -0.17058 0.23672 0.40809 -0.62614 -0.27668 0.13201 0.038888 -0.072448 -0.20778 -0.23925 -0.48849 -0.099545 -0.48626 0.47209 0.004233 0.82889 -0.14237 -0.16226 -0.15763 0.48644 -0.10804 -0.1325 -0.35352 -0.10985 0.12855 -0.062318 -0.54466 0.12784 0.12978 0.45293 -0.3773 0.51628 0.043534 -0.24076 0.10091 0.73964 0.070216 -0.035548 0.050875 -0.15312 -0.1032 0.10185 0.25362 -0.27589 -0.30934 0.13463 0.09929 0.042533 0.47649 -0.25198 0.11906 0.012519 0.17985 -0.38095 -0.028618 -0.0030493 -0.38539 0.263 0.22184 0.21561 0.26746 -0.22662 -0.067037 -0.082321 -0.17368 0.00056451 0.12373 0.010061 -0.19608 -0.56198 -0.2021 0.43299 0.020315 -0.42902 -0.4501 -0.49661 0.76216 0.48217 0.46164 -0.38713 -0.034105 -0.014473 0.44772 0.027793 0.080417 0.25613 0.23254 -0.16311 -0.18666 -0.050658 0.097475 0.060302 0.52963 0.47949 0.15521 0.19745 -0.080583 -0.070542 -0.22317 0.29095 -0.13839 -0.40653 -0.41539 -0.14715 0.029877
draw_lax -0.013854 -0.36073 0.23041 1.4757 0.0067735 -1.6027 1.1137 -0.9445 -1.3506 0.019315 -0.063812 -0.51511 -1.3041 -0.84484 0.57999 -0.47144 -0.025747 0.56291 -0.27478 0.27052 0.33338 0.38328 0.12027 0.22457 -1.642 -0.81348 -0.5815 0.11671 -0.13163 1.0699 -0.14579 0.55631 -0.6779 0.68368 0.3564 -0.23607 0.29217 0.93878 -0.29613 0.19829 0.44874 -0.057401 1.1395 -0.15472 0.75117 0.31525 0.62493 -0.25293 0.49694 -0.24309 0.3319 -1.769 -0.30976 0.21825 -0.68899 0.4055 0.62872 -0.41774 -0.91465 0.18023 -0.96281 0.71035 -0.09599 1.248 -0.8379 0.31601 0.24433 0.4998 0.81488 0.1465 0.36445 -0.15248 1.2991 1.4327 -0.33635 1.7253 -0.96817 0.03085 -1.3879 -0.21057 -0.15462 0.12601 0.88594 0.55021 -0.82871 -1.0041 0.9931 0.39576 0.080952 -0.35162 0.29776 -0.20988 -0.68214 -0.27965 -0.59255 0.072146 -0.12985 0.62638 0.68918 -0.11021 0.71054 -0.56099 0.20506 -0.13891 1.6162 0.92882 -0.089164 -0.55332 -0.12841 -0.70553 -1.1856 -0.90497 -0.098335 -0.2412 -0.68041 -0.85214 0.59527 0.54946 0.19956 -0.025653 1.1217 0.18836 -0.45324 0.97573 0.67916 0.0040407 -0.69773 1.0266 -0.58682 -0.60034 -0.65925 -0.20483 -1.007 1.2 -0.035307 -0.13303 0.014792 -1.2371 0.59224 -0.074298 -0.36274 -0.39709 0.85182 0.70584 -0.38083 0.21462 1.0881 0.45155 -0.25756 -0.9382 1.4373 1.1676 -0.78139 1.2255 -1.6364 0.19354 -0.20638 0.7777 -1.0032 -0.36063 0.21736 -0.47665 0.58412 -0.17627 0.019912 -0.048215 -0.7315 -0.58366 0.90011 -0.019428 -0.067628 -0.54156 -0.36389 1.1751 0.15206 1.6864 -0.85181 -0.34079 -1.1341 -0.84859 0.33065 -0.26404 -0.78876 0.28884 -1.1096 -0.56641 0.32569 -0.09068 0.18586 0.29292 -0.50581 0.30686 0.50567 1.0117 -0.018192 -0.88067 0.2015 0.086687 0.39648 0.047607 1.1888 -0.18224 0.46419 0.04328 -0.36772 -0.60537 0.85815 -0.39279 1.1402 0.30799 0.38313 -0.27698 0.81662 -0.22388 -0.34627 0.30014 0.67478 -0.97178 0.55182 0.32931 0.33854 0.808 0.426 0.24778 0.73981 0.30566 -0.13291 -0.87523 -0.75248 -0.40715 0.30372 -0.11796 -0.42768 0.4983 -0.12169 0.23311 1.0477 -0.69421 0.62442 -0.0033905 0.1461 0.5607 -0.18174 -0.43764 0.010029 -0.34546 0.071294 -0.018393 -0.68634 -0.75007 1.191 0.15974 0.37908 -0.2579 0.99188 0.062515 0.18598 -0.78483 0.5349 -0.66935 -0.71171 0.33633 0.3475 0.85797 -1.6582 -0.68263 0.75755 0.61878 0.20187 0.33643 0.10851 -0.070863 0.12924 0.10059 0.091041 -1.1621 0.39946 0.73471 0.63546 0.38039 -0.84555 1.6264 -0.52559 0.45454 0.19642 0.58558 -0.001638 0.17905 -0.4123 -0.44513 -0.7852 -0.84742 0.59002 -0.14315 -0.28004 0.54323 -1.152 0.56179 1.9784 -0.22832
style—but 0.070447 -0.14072 -0.65624 0.44562 0.093846 0.029631 -0.18981 -0.15442 0.043065 0.20402 -0.081675 0.43314 -0.32637 -0.18467 -0.30884 -0.11943 -0.18769 0.20119 -0.15296 0.16411 0.08494 -0.092707 0.04 0.16568 0.29459 0.028118 0.27135 0.1929 0.21838 0.095277 0.1308 0.22123 -0.49398 0.37017 -0.14654 0.053133 -0.16898 -0.11369 -0.23181 -0.12535 -0.14154 0.075662 0.082111 0.019291 0.12482 0.2302 -0.089153 0.14149 0.12761 -0.24876 0.077597 -0.34026 0.12535 0.20055 -0.18522 0.11459 0.21801 -0.097634 0.07866 0.17708 -0.057949 0.16689 -0.040789 0.22574 -0.029445 -0.063814 0.16282 0.7076 0.041795 0.059775 -0.072244 0.18128 -0.23501 0.2555 0.078896 0.16803 -0.069262 0.17466 0.044621 0.12005 -0.11696 -0.37913 0.20912 -0.017879 -0.14909 0.48079 0.079153 0.034718 -0.20746 0.088686 0.33523 0.016998 0.31303 -0.11954 0.2529 0.11243 0.23038 -0.060578 -0.10829 0.107 0.018652 -0.59998 0.1532 -0.035262 -0.20105 -0.39399 -0.33689 0.1384 -0.037944 -0.13595 0.07703 0.17178 -0.073602 0.10918 0.32407 -0.035055 0.25075 -0.25062 0.037603 -0.023607 -0.0058621 0.1359 -0.15741 0.34852 0.26663 0.019527 -0.072462 0.0093283 -0.17421 0.12924 -0.20237 -0.10493 -0.35572 -0.19263 -0.16564 0.082606 0.067571 0.11697 -0.034601 -0.0054269 0.16664 0.098941 0.34187 0.018436 -0.17017 0.13165 -0.2742 -0.080346 -0.11345 -0.32213 0.25471 -0.15371 -0.010189 0.094844 -0.44063 0.093854 -0.19097 0.089936 0.091746 -0.14429 -0.19947 0.25086 0.015008 0.00081998 0.16136 0.26018 -0.21611 -0.37683 0.21809 0.15289 -0.04166 -0.56653 -0.23255 0.030505 0.017601 0.1096 -0.0071306 0.0010654 0.13563 -0.018141 -0.14818 0.16621 0.27645 0.16024 -0.10132 0.47719 -0.12124 -0.18997 0.15696 -0.20753 0.10828 -0.35019 0.11327 0.19663 0.083849 0.047404 -0.023227 0.17746 0.028365 -0.060393 0.054443 0.08554 0.29469 0.18512 0.66766 -0.4707 -0.064158 -0.27736 0.31712 -0.042361 0.50494 0.28168 -0.15015 -0.2213 0.18038 0.013793 0.23235 -0.10591 -0.13792 0.23932 0.065947 -0.28716 -0.056289 -0.24501 -0.13721 0.30309 -0.0094562 -0.18871 -0.15515 -0.037956 0.13052 -0.0032909 0.0071806 -0.42958 -0.57602 0.43362 0.23588 0.30899 -0.29197 0.12536 0.064191 0.095812 0.40807 0.17531 -0.34435 -0.065202 0.02508 -0.090489 -0.10459 -0.24254 0.10204 0.15013 0.15092 -0.27866 0.21309 -0.13788 0.021454 -0.28326 -0.16421 -0.016965 0.14104 0.113 -0.068535 -0.23862 -0.26496 -0.16249 -0.26206 0.36489 -0.0078674 0.058408 -0.089576 -0.438 -0.0064544 0.16561 -0.11937 0.10298 0.093298 0.19502 -0.25018 -0.17438 0.19663 0.37351 -0.071079 -0.063416 -0.20772 0.072867 0.2689 0.1197 -0.45806 0.32265 0.01802 0.49683 0.19888 0.091359 0.13476 -0.28709 0.08022 0.095864 0.36397 0.030378
korpaljo -0.23073 0.060873 -0.19777 0.43128 -0.00078012 -0.39279 0.018535 -0.016264 -0.045069 -0.034354 -0.2113 0.20319 -0.18742 -0.4536 -0.025293 -0.10756 0.064742 -0.08544 -0.071313 0.36076 0.053773 0.16914 -0.2464 -0.21445 -0.30644 -0.18006 0.22109 -0.11438 -0.010556 0.068988 -0.41117 0.13289 0.046673 0.018069 0.051945 0.20228 0.067443 0.030822 0.11851 -0.23825 0.045282 0.69133 0.064864 -0.094094 0.35052 0.12545 0.06546 -0.29863 0.083302 0.19742 -0.12734 -0.32889 -0.19092 0.18617 0.50943 0.063581 0.39675 0.25979 -0.34906 0.22069 0.061467 -0.46078 -0.034462 -0.47021 -0.11147 -0.258 -0.014579 0.46844 0.39351 0.038492 0.18664 -0.26059 0.16372 0.25024 -0.60681 0.3499 0.52742 0.17399 -0.56549 -0.20399 -0.11836 0.10533 0.097468 -0.19671 -0.1706 0.19985 -0.10167 0.06785 0.062124 -0.044855 0.14872 -0.35267 -0.29901 0.37353 0.030043 -0.22273 -0.14803 0.050365 0.44957 0.1198 0.014983 0.085622 -0.46205 -0.18401 0.032761 0.22436 -0.45891 0.14534 0.018781 0.48918 -0.69858 -0.052917 -0.072068 0.055226 0.075715 0.041713 0.051212 0.44928 -0.015492 -0.10754 0.3448 0.22569 -0.31246 0.28845 0.097124 0.025669 0.0033809 0.036448 -0.0018172 -0.00080303 0.38214 0.77736 0.26941 -0.20889 0.22133 -0.37119 0.4647 -0.41923 0.14561 0.16464 -0.4291 0.19614 0.094475 -0.026711 0.071654 0.24051 0.25379 -0.11373 0.31274 -0.01032 0.49012 -0.21832 -0.1849 0.17363 -0.48172 -0.15357 -0.16871 0.147 0.44369 0.23228 0.31012 0.047981 -0.038188 -0.21839 0.2188 0.24127 -0.080272 0.20415 0.39738 0.71274 -0.41749 -0.30263 -0.39002 0.30792 -0.19428 0.23901 -0.44693 0.036759 0.30006 0.18848 -0.021508 -0.05926 -0.24873 -0.010946 0.07416 -0.029406 -0.53706 0.011036 0.41336 -0.01275 -0.0078578 -0.15108 0.345 0.36978 -0.088057 0.075056 -0.14806 0.66407 0.05131 0.0090496 0.19155 -0.35804 0.15795 0.18077 0.0019672 0.011311 -0.033255 -0.11747 -0.011953 -0.069634 0.41548 -0.20388 0.056998 -0.33818 0.27911 -0.005411 0.46381 -0.51347 -0.40341 0.3608 -0.020199 -0.13846 0.11819 -0.10417 0.027841 0.26357 0.32044 -0.064837 0.21001 0.083136 0.41578 -0.26616 -0.24798 0.48006 -0.050683 0.12143 -0.10978 -0.40496 -0.048827 -0.24395 0.023355 0.48217 -0.21792 0.43312 0.31204 -0.11472 0.017943 0.28513 -0.081488 -0.57289 -0.07587 -0.010618 -0.076612 -0.14349 0.017091 0.35695 0.0032987 -0.72288 -0.080825 -0.055001 0.0072328 0.29322 -0.073118 -0.11211 -0.19765 -0.062626 -0.079156 -0.16769 -0.483 0.033109 0.10835 0.16507 0.10543 -0.52462 0.052073 0.046168 -0.15354 -0.12186 -0.29896 0.11422 0.036168 -0.18377 -0.17331 0.1951 0.14036 0.17572 -0.00060394 0.25404 0.09751 -0.45323 -0.06729 0.26496 -0.012777 -0.013024 -0.0035608 -0.0084425 -0.29175 0.52283 -0.11123 0.21186